Scratch_Weights,Transfer_Weights
-0.18814985,-0.05347426
0.17104389,-0.049257044
0.12350216,-0.06794177
-0.13364741,0.015314446
0.13931048,0.04506842
-0.045978658,0.002144398
-0.10570943,0.03622622
-0.15204675,0.019999448
0.06922365,0.019864023
0.08790188,0.017014775
0.04545402,0.055402607
0.15016475,-0.0062293
-0.16635448,0.14164735
-0.08705593,0.22705214
0.149991,0.13758276
0.14167173,0.120000936
0.124333985,0.2002953
-0.17345694,0.092114314
0.06777276,-0.044885147
0.03865959,0.012679954
0.12186379,-0.014497219
0.10158227,0.059742384
0.10110367,0.13954678
-0.05378473,0.05410246
-0.029040996,-0.00096140587
-0.11254224,0.058304
0.05596299,-0.029663155
0.0129119195,0.2607192
0.10713006,-0.30489096
0.009745647,-0.50151926
0.13884029,0.4137649
0.18986888,-0.20830649
0.08969807,-0.49086165
0.13143662,0.58770466
0.16836481,0.42850932
0.10280685,-0.13849954
-0.03946923,0.28745946
0.15077877,-0.33337757
0.15304545,-0.455642
-0.09064495,0.3783639
0.17466138,-0.29144284
-0.019011168,-0.49720347
-0.0076852175,0.54778373
-0.104980774,0.48983255
-0.1242189,-0.17165971
0.04367548,0.06725983
-0.08729255,-0.09538631
-0.16324197,-0.038037468
0.092705466,0.06195455
0.11014007,-0.13125293
0.19105253,-0.106913984
-0.18328859,0.048106834
-0.013093641,0.22999452
-0.08906933,-0.030578233
-0.021723352,-0.032456636
0.081429146,0.1628082
-0.088981226,0.059686888
-0.16598777,0.13959558
-0.1647335,0.3773214
0.06367799,0.23203932
0.063999996,0.030061698
-0.1495985,0.19476035
-0.098444,0.08527603
-0.020729305,-0.09540565
-0.1033478,0.09607242
0.026765555,-0.025563814
-0.10635506,0.023298707
0.16024071,0.28449568
-0.15704922,0.09469722
-0.18391056,-0.14334984
-0.07147103,-6.858709e-05
0.011573102,-0.10201706
-0.09774304,-0.12479666
0.15715928,0.05240283
-0.012380747,-0.026686734
0.17149507,-0.041413527
-0.12180992,0.1793507
-0.010488734,0.049904805
-0.111860804,-0.11839431
0.1468362,-0.020942433
0.15117492,-0.10206841
-0.09172812,0.05189619
0.14055823,-0.051161263
0.029872958,-0.063859574
-0.0045999303,0.36627063
-0.02171234,0.031180717
0.041395452,-0.3250742
0.122619726,0.27276486
-0.103803374,0.016340282
0.12634668,-0.28324756
-0.034672987,0.11036662
0.042963527,-0.1023009
0.0048807845,-0.22513911
0.04561973,0.4718943
-0.005840579,0.02776273
-0.049589176,-0.4344606
0.19043995,0.40028483
-0.11010103,0.04106744
-0.1227186,-0.35732093
-0.045705948,0.055504784
0.019985806,-0.09181406
0.035153024,-0.033817098
-0.1004371,0.29405436
-0.14800069,0.01043809
0.0762137,-0.27161434
0.07694055,0.21596052
0.16971195,0.01198777
0.103698485,-0.17146645
-0.07669702,0.32665598
0.08326603,0.1567078
0.051631045,0.06586424
-0.19180027,0.18697475
0.09095939,-0.09560021
-0.09845605,-0.09401077
-0.047935136,0.122537315
-0.08951527,-0.055917576
-0.11727875,-0.06119099
-0.10826162,0.25442302
0.18222016,0.0071147047
0.08188594,-0.096991256
0.035235636,0.074458055
-0.02185084,-0.32500544
-0.11935751,-0.3215391
0.083538875,-0.002961522
0.042237118,-0.27468115
-0.12777974,-0.2497917
0.14975572,0.13886863
-0.031567395,0.0014895152
-0.108048074,-0.002100872
0.017484318,0.0048558027
-0.08029735,-0.18442395
-0.07132723,-0.15752639
0.17588912,0.04792805
-0.021368006,-0.11734822
-0.07438097,-0.12622648
0.037865438,-0.05355792
-0.09139542,-0.25140417
-0.0006813726,-0.33377212
-0.14158891,-0.039370287
0.09060535,-0.2243468
-0.013050419,-0.26778582
-0.081280366,0.12670718
-0.15174212,-0.06033928
-0.1043351,-0.06492402
0.0802394,0.1042385
-0.14414155,-0.0895395
0.10793121,-0.17165123
-0.13372639,0.14367178
0.16186263,-0.017553
-0.18552719,-0.05871847
0.037859242,0.24823077
-0.12681259,0.11537317
0.029185528,0.10321497
-0.06711566,0.070559114
0.19165534,0.046375185
-0.022385934,0.044279728
0.14093085,0.027679404
-0.13398258,-0.0049156193
-0.054627318,0.049099315
-0.015837416,0.057435255
-0.113993175,0.023989717
-0.08444565,0.077452324
-0.1740038,0.57369286
0.16284513,0.6367849
0.049989898,0.31393358
0.026985705,0.16077687
0.03774304,0.024724776
-0.101261556,-0.12479664
-0.0041644024,-0.33026195
0.05649008,-0.5056203
-0.009407117,-0.7196307
0.13799828,-0.055568818
0.061543867,0.036739063
0.12298214,-0.018648906
0.06905837,-0.048945207
-0.061885428,-0.09257515
-0.13363525,0.0371497
-0.12791826,0.090878725
0.020997724,0.08718496
0.09126415,-0.013024411
-0.18216076,-0.5705864
-0.15662733,-0.5154352
-0.077066526,-0.36060628
0.02042482,-0.13742274
0.13888241,-0.1140128
-0.10032532,0.16291067
-0.108065926,0.35977298
0.03704288,0.5390577
0.0526066,0.5974305
0.1320665,0.075937346
-0.17810307,0.043693915
0.104907475,0.19092612
-0.063786045,-0.24965905
-0.07485679,-0.11943459
0.13200293,0.1856434
0.024282284,-0.23631471
-0.035300653,-0.14406657
-0.177778,0.18164155
-0.13262716,0.12791643
0.18036474,0.09294864
-0.016299695,0.27406788
0.06989307,-0.30291042
0.06884896,-0.15825276
0.04269256,0.21728984
-0.05127446,-0.32550228
0.08349944,-0.2482019
-0.12892586,0.14011198
0.098573074,-0.008814331
-0.05416084,-0.046407577
0.07706884,0.090619825
-0.16164498,-0.20477824
-0.08106471,-0.16192454
0.06352983,0.03682886
0.14005369,-0.19098456
0.089548215,-0.16936576
0.0074799573,0.02184061
-0.17461595,0.036662906
0.14772917,-0.011606001
-0.16138634,-0.34962994
-0.038398053,0.17417236
0.09975598,0.2583797
-0.017769877,-0.33115163
-0.05507996,0.092388496
-0.037056692,0.12463138
-0.043818522,0.021338979
-0.09965256,0.20686121
0.124951646,0.10769667
0.16029316,-0.4865587
-0.021108763,0.37481153
-0.109966315,0.41310003
0.18845853,-0.5149921
-0.17777741,0.09131173
0.13758652,0.038485855
0.16500573,-0.22783184
0.10875395,0.19206168
0.1787566,0.20239204
0.13111804,-0.0892532
-0.000846485,0.13433313
-0.15092018,0.22642432
-0.118791215,-0.30711657
0.089934945,-0.051772732
0.15270102,-0.12876439
-0.022921123,-0.18960111
-0.044510998,-0.014900835
0.06646696,-0.16517682
0.14749923,-0.10787852
-0.07818835,0.1793923
-0.18140002,0.12975909
-0.015209705,-0.17805226
0.108429946,0.06429561
-0.06923626,-0.0045020725
-0.017534034,-0.011491018
-0.12551785,-0.15301885
0.115360394,-0.20918576
0.08419971,0.056806713
0.12728478,0.103061736
-0.1462888,0.14145637
0.16194323,-0.03395586
0.04612264,-0.024348527
0.1204764,-0.035803784
0.18093169,0.1002388
0.101090714,-0.18483232
-0.10891844,-0.1068332
0.0606685,0.17040437
-0.04007267,-0.18093468
-0.0543789,-0.03432016
0.14902519,0.052097388
0.0048530935,-0.15735553
-0.038454354,-0.08464348
-0.046298075,0.17528982
-0.02575655,-0.3611915
0.18013166,-0.33607516
0.11366192,-0.064983495
0.030072851,-0.06576985
0.10700181,-0.24281731
0.1453538,0.052757125
-0.088651694,0.27126575
-0.10407398,0.49414244
-0.1389371,0.31427366
0.045590688,-0.19801615
-0.12608227,-0.2757613
0.10213103,-0.08139574
-0.1745235,0.01351485
-0.06274393,-0.3009012
0.15517226,-0.11228029
0.15879811,0.32494923
0.10759704,0.41937146
-0.10372609,0.12739716
0.08941474,0.010645575
0.042030275,-0.07324666
-0.008602639,0.0035069617
0.09628981,0.082247235
0.065018505,-0.16281398
0.034972515,-0.08188272
0.061444025,0.12306456
-0.116097726,0.17777506
0.08266644,-0.05662672
-0.007972656,0.29864454
0.1605801,0.051054616
0.119305685,-0.2190421
0.0137124285,0.56043136
0.11575683,0.035906646
0.1610287,-0.57207143
0.17722198,0.26757753
-0.103411645,-0.010391043
-0.012958377,-0.41849798
0.07751004,0.47955766
0.17435566,0.0064678593
0.037972666,-0.44238806
0.15306965,0.8543836
-0.039241876,0.057733126
0.15283754,-0.8581053
-0.11172696,0.4894668
0.052817985,0.02041663
0.023709657,-0.63029635
-0.076161444,0.14143585
0.15906534,-0.054974016
-0.0853026,-0.2839296
0.044637408,0.47104782
0.0149575975,0.04445844
0.066767424,-0.5120919
0.1681992,0.32655478
-0.037553288,0.115431584
0.11741977,-0.24385594
0.1716275,-0.11006114
0.12978292,-0.25800037
0.141818,-0.3140786
-0.07435503,0.2750009
-0.17471543,-0.12396166
-0.19102044,0.052162066
-0.0812594,0.23296648
-0.1801337,0.0280801
-0.06841259,0.16737294
0.13539705,0.3038213
-0.08091183,0.07332365
-0.1027634,0.026669735
0.09942504,0.39268062
0.045088973,-0.26790634
0.03217258,0.03807079
-0.006534639,-0.018899035
0.09901498,-0.4144932
-0.09039032,-0.10909428
-0.025069878,0.36586133
-0.1699609,0.5062208
0.16937938,0.4393921
0.13493763,0.03326213
-0.17368053,-0.13686506
0.06338952,0.1635924
-0.08751481,-0.54202265
-0.1325777,-0.5782987
-0.17070895,-0.24233173
0.07974939,0.15636478
0.13880728,0.4396947
0.19083641,0.16037361
-0.017111745,-0.018352257
-0.18704921,-0.044281255
-0.08214995,-0.00912443
0.1640478,-0.1648382
0.13298412,-0.40086362
-0.13662305,-0.11854462
0.11266762,0.23043127
-0.059070714,0.53001076
-0.07739374,0.23413959
-0.090497755,-0.03138542
-0.18356597,0.047478266
-0.13289791,-0.007889766
0.11041391,-0.29929537
-0.16172542,-0.49409047
0.04405083,-0.20704171
0.0026652222,0.05920005
-0.0940795,0.2930306
0.036597624,0.060446087
0.07419368,-0.009477356
0.08562069,-0.023333032
0.0077273617,-0.012746583
0.014386506,-0.07027837
-0.1769936,-0.28124177
-0.043202512,-0.0388256
-0.017955316,-0.06661928
0.13139826,-0.17231862
-0.17661166,-0.086977944
0.0030694574,-0.07385748
0.032575414,-0.15227255
-0.109747425,-0.17876056
-0.19004571,-0.02747379
0.11586993,-0.1476718
0.030431386,-0.08548336
-0.10819031,0.104444675
0.028216558,0.13827726
-0.1795534,0.08011286
-0.051710904,0.24057941
0.18456025,0.31324214
0.1724917,0.12043769
-0.13379176,0.14633359
-0.18787605,0.18135431
0.17469622,0.12645143
-0.1260331,-0.030677006
-0.0065338127,0.004120026
0.06749709,0.10165833
-0.02081903,-0.12232471
-0.18802945,-0.08541512
-0.16599625,0.0005815053
-0.09196076,-0.1437943
0.18411435,-0.13782057
0.12098138,-0.039686922
0.14443038,0.07646507
-0.1000319,-0.24019715
0.03478935,0.3610598
-0.12413918,-0.13982718
-0.046583176,-0.3131523
-0.12856227,0.56120116
0.08329103,-0.09549494
-0.020941218,-0.08709879
-0.09880745,-0.025955029
0.101419196,0.12568593
-0.12587447,-0.61505955
0.17410897,0.08998763
0.0319522,0.11406492
0.113813795,-0.5110127
0.13461837,0.47689494
-0.011968619,0.28365764
-0.07703415,-0.009971572
-0.069671564,-0.05046778
0.1216371,0.25962865
0.14638132,-0.14725497
-0.034677207,0.056897923
0.1792937,0.10233425
-0.02869315,-0.27345142
-0.10304008,0.09175975
-0.12747449,0.11719766
0.11966688,-0.00541806
0.011818397,-0.22756696
-0.05996228,0.20144057
-0.19044337,0.5278643
-0.1625027,0.07546603
-0.1478788,-0.025506007
-0.07377476,0.063551255
0.03240163,0.060200743
0.18668495,-0.29305473
0.1337265,-0.56141543
0.086595625,-0.029048234
-0.18936588,0.34817106
0.107758254,0.76549655
-0.045429934,0.1105112
0.055502754,0.01915289
-0.023031747,0.10960198
-0.13774629,0.017605178
-0.08199661,-0.3956966
0.0061431592,-0.82339877
-0.19047175,-0.17313367
-0.18814221,0.10570506
-0.17947948,0.33576828
0.17276666,-0.13764542
-0.0049564927,0.08762082
-0.017492166,0.11992684
-0.0061738323,-0.044407554
0.08307593,-0.07465029
-0.108784735,-0.32707268
0.07472533,-0.03851306
-0.16006298,0.11696233
-0.108552404,0.10703242
0.17490336,-0.049760215
0.16467044,0.0974598
-0.15867236,-0.06437587
-0.0343777,-0.17374074
0.13258323,-0.08942066
-0.097222075,-0.4262933
0.16878292,-0.27598897
0.08921563,0.1858705
0.08106849,0.29094747
-0.011995232,0.020949554
0.14782996,0.2832397
0.035171583,0.26604193
0.01134217,0.035599936
0.1638875,-0.03151665
0.18789698,-0.26018772
-0.010880397,-0.1548194
-0.13017511,0.11676476
0.18415576,0.15363924
-0.15184274,-0.062499397
0.08154929,0.17796828
-0.15071723,0.10837653
0.11851338,-0.04238023
-0.00980408,-0.05534128
-0.12655549,-0.23671468
0.16290388,-0.16658555
0.1531094,-0.46103936
-0.08469847,-0.5626524
0.14588901,-0.040036216
-0.11740546,-0.11822989
0.0094062,-0.06784726
0.1437924,0.25575742
-0.15913127,0.119815364
0.064954795,0.4873219
0.08279648,0.41021806
0.11605852,-0.58437306
-0.15489662,-0.585718
0.0871429,0.08499711
0.0582,-0.26813614
0.059535906,-0.088386625
-0.1180144,0.43369943
-0.039975327,-0.061133884
0.11195234,0.4857435
-0.1630195,0.53584737
0.053798016,-0.30127406
-0.13497376,-0.21237373
-0.08467142,0.21659026
0.14220439,-0.24066013
0.0024007258,-0.0071643456
-0.110205576,0.3166484
0.014472056,-0.22225346
0.014419886,0.20775536
0.07988906,0.27229762
0.052140262,0.13493833
-0.102238975,-0.014006125
0.15443446,0.005722366
-0.010331398,-0.33556664
-0.010848989,-0.3103226
0.11614005,0.03292003
-0.17125638,0.07656895
0.042326868,0.4642053
0.079182036,-0.0012836542
-0.17771494,0.16769592
0.18151958,-0.05171557
0.020879505,-0.055166874
-0.09495593,-0.48506036
-0.052093253,-0.4431715
-0.088688195,-0.07110229
-0.0353687,0.18008456
0.13362677,0.71259123
0.020060848,0.03566712
0.1474569,0.2525004
0.0069507346,0.14128281
-0.12622195,0.11537738
0.08708967,-0.1966908
-0.1516326,-0.21659522
-0.18214744,0.02079988
-0.10849198,-0.09912303
-0.012006359,0.15312383
0.0885594,-0.21373284
0.0053924564,-0.5921844
-0.1104622,-0.32286617
-0.18634297,0.5668334
-0.18339364,-0.6157776
0.0065043783,0.44552326
0.022727424,0.91613406
0.03988482,-0.7298127
-0.12976678,-0.16002148
0.009325009,0.49687994
0.15251796,0.004988351
-0.09537482,-0.5080675
-0.10996602,-0.27638412
0.11495346,0.2916723
-0.1386564,0.6750467
0.17616907,0.27891177
-0.1641659,-0.08247489
0.03937916,-0.19075945
0.13735022,-0.19833314
-0.03102051,0.6792736
-0.045222633,-0.14813487
-0.017409323,-0.58751285
0.047804873,0.65598935
0.1101986,0.27187207
0.16703133,-0.5812685
-0.14644323,0.4888867
-0.0142777385,-0.15815614
0.0013041288,-0.60499907
-0.11259793,0.08681569
0.04364903,0.68137723
0.074232265,0.2218849
0.15687935,0.040992208
-0.18417034,-0.31018913
-0.16720419,-0.19583237
-0.13040283,0.22299409
0.12091634,-0.3434289
-0.068914436,-0.36786357
0.08886856,0.05274807
0.15082015,1.0212588
0.052745625,0.55253845
-0.142883,-0.14049184
0.08251489,-0.48408055
0.14506035,-0.12948333
-0.012617139,0.11963264
0.09372251,-0.56502146
0.06790786,-0.46806908
0.17103215,-0.34608132
-0.15279292,0.36824223
-0.037444293,0.13302323
0.18635777,-0.17014244
-0.021063544,-0.16643752
0.028299103,0.09783953
-0.085738674,0.16333552
0.1091204,-0.08530578
-0.16844526,-0.016640512
-0.11875638,-0.008343242
0.122935355,0.0012328514
-0.19134927,0.13702832
-0.13321498,-0.07040047
-0.15976885,-0.22131488
0.01241259,0.29203242
-0.09114111,-0.05079457
0.0277549,-0.12226698
0.052727778,0.15186517
0.15528062,0.018498639
-0.024292631,-0.115263
0.18384449,0.018805824
0.105960414,-0.08182408
-0.06973259,-0.43986046
0.10071024,0.12505575
-0.08401182,-0.024811553
-0.15931377,-0.26544744
0.094131485,0.06962465
0.08946349,-0.0006651041
-0.17448273,0.015728258
0.17352688,0.057847098
0.11851552,0.018533804
-0.09741134,-0.06329779
-0.059546,0.33817074
-0.07223628,0.0021378612
-0.09510631,0.029209774
0.16017507,0.19475654
-0.06770543,0.044611707
-0.0027845197,-0.061179575
0.03454396,-0.0013672156
0.0034863565,-0.1297787
-0.040445797,-0.3115621
-0.0006163784,-0.14397693
-0.13632931,-0.027355628
0.044415195,-0.13120611
-0.024753876,-0.03628647
0.009063632,0.16615741
-0.16078186,-0.038585678
0.07961841,0.10806861
0.06816208,-0.07163409
0.038707264,-0.35064054
0.05483921,-0.12068239
0.12500824,-0.0044426764
-0.09395548,-0.15570393
-0.13417213,0.000179405
0.13799003,0.15786864
0.024359874,0.06527516
0.18903485,0.12052809
0.047427043,-0.022444528
-0.032967262,-0.17400107
0.16729094,-0.031406753
0.016126735,0.024238147
0.039495453,-0.062438305
0.12024116,0.028522396
-0.11683039,-0.26971945
0.11664069,-0.28285575
0.08326027,0.044025943
0.071895435,-0.19528715
0.1821144,-0.23125044
-0.16615416,-0.03555876
0.1787629,-0.11859329
-0.09622335,0.022679588
0.015781553,0.16142327
-0.15223755,0.1405791
0.077526756,0.17453304
0.16913325,0.2060926
-0.10326762,0.4273097
0.08512916,0.41397274
0.05594365,0.17570104
0.057152502,0.018283792
0.07163123,0.21976629
-0.16370021,0.016234577
0.09927519,0.097909346
-0.13772203,-0.08278882
-0.13682301,0.026646199
0.08872125,0.01081284
-0.18144609,-0.23789582
-0.092399195,-0.23586944
-0.16677535,-0.076279074
-0.055144012,-0.14730103
-0.059861954,-0.16878755
0.095997855,-0.0430425
0.109183215,-0.23777097
-0.18494123,-0.028935906
-0.012000876,0.043749105
0.03129737,-0.13982807
0.110567965,-0.07525972
0.17573196,0.14036545
0.06699331,0.10928136
-0.09473227,0.14165322
-0.057111207,-0.15114352
-0.11318959,-0.37057605
0.09274598,-0.16154493
-0.14008482,-0.12421823
0.12187604,-0.3423563
-0.14676307,-0.2150989
0.14820603,-0.06253266
0.0018340164,-0.13126181
0.12845494,-0.07577727
0.13951796,0.14227153
-0.08281974,-0.049397342
-0.008032305,0.09845341
0.18172331,0.16378173
-0.12639166,0.0032564327
-0.06566537,0.07467172
-0.13461097,0.15574925
-0.0796297,0.13288194
-0.017450135,0.13193819
0.07767113,0.058774665
0.11714603,-0.058326494
-0.03183414,0.056553394
0.1500617,-0.057547387
0.11255984,0.08661685
-0.049196042,0.26775223
-0.12090152,-0.011258986
0.10088199,0.018039804
-0.0980681,0.06657738
0.17709231,0.082856454
0.03350993,-0.09633433
0.06642527,0.043216996
0.04038633,-0.06276881
-0.015942926,0.0830951
-0.037683096,0.27852285
-0.12474593,0.045831483
0.1666079,0.0408214
0.016547374,0.043062348
-0.057540037,0.2363259
-0.12916628,-0.01860307
-0.12286027,-0.11306731
0.1578527,0.000717224
0.037857063,-0.23301704
-0.16972579,-0.29449314
0.011843472,-0.005305894
0.13294744,-0.32474405
0.12962501,-0.41746548
0.16251469,0.24436168
0.17954111,-0.13366987
0.19055706,-0.019749772
-0.07712886,0.10297526
-0.057293367,-0.40132836
-0.0837846,-0.09361734
0.1678711,0.031310674
0.08013449,0.2786309
-0.17944829,0.04395167
-0.10736333,0.24306196
-0.18658234,-0.27986953
-0.18713483,0.051274907
0.001573466,-0.05109804
-0.14111984,-0.6217942
0.062207047,0.020848777
-0.18452092,-0.037331887
0.030661033,0.38013062
-0.06258586,0.28299454
-0.17387204,0.17463763
-0.14941767,-0.013624053
0.13482271,0.12617904
0.05869775,0.011458733
-0.0022633958,-0.31068915
-0.15558256,0.044263814
-0.15309763,-0.1458098
-0.1233613,0.121001445
-0.1323116,-0.0415796
-0.06531512,-0.107200146
0.06219911,0.19767357
-0.056803007,0.27244484
0.0022954228,0.0060719354
0.11459687,0.18667218
-0.03092133,0.20502922
-0.08539524,-0.24939123
-0.1626628,-0.49033836
0.13748239,-0.03214548
-0.042302202,0.032954704
-0.16573386,0.51740533
-0.111867756,0.54436904
0.043436747,0.036343403
0.03503664,0.29969022
-0.12816036,0.24087985
0.1266185,-0.49325907
0.13594608,-0.85867447
-0.026109442,-0.29094103
0.022753624,-0.023561561
-0.052259717,0.27807698
0.06309086,0.25571787
-0.19077635,0.03533897
-0.06843661,0.23376696
-0.1510175,0.09541213
-0.08088425,-0.22710942
-0.024978248,-0.45154032
0.19015387,-0.19539711
-0.085763134,0.031118074
-0.14769621,-0.22094734
-0.018262483,0.09139965
-0.04286554,0.67728657
0.05505211,-0.18673114
0.0024947643,-0.34516516
-0.15435478,-0.20296746
0.14726144,-0.10756622
-0.049873196,0.31011528
0.020259548,0.29722914
-0.14429112,-0.2860415
-0.120912164,-0.090737
-0.1353442,1.1392043
-0.009236981,-0.2557439
0.0007422144,-0.6660741
0.047304716,-0.14194134
-0.031196037,-0.23279297
-0.049103335,0.20806283
0.036847852,-0.017885666
-0.14916912,-0.06823804
0.04512015,0.11979533
-0.065566055,0.49399564
-0.104447745,-0.114632495
0.11947942,-0.25256047
-0.036624696,-0.23151135
-0.06988142,-0.11804243
-0.07619831,0.17216665
0.16025993,-0.24938212
0.07574062,-0.07176058
-0.080184385,0.06433974
0.12600715,-0.6670427
-0.04067847,0.49196568
0.08284507,0.71265095
0.12504846,-0.27264932
0.15942208,-0.15665533
0.004393087,0.1652996
-0.062084056,-0.48580676
-0.104859136,-0.07145063
-0.017736565,0.22085801
0.14510612,-0.98657227
0.046506755,0.7028983
-0.17040966,1.0774843
-0.021186054,-0.5715719
-0.18452759,-0.21321175
-0.11637188,0.30857697
0.0360888,-0.13433601
-0.090985335,-0.06104372
-0.006106452,-0.008969957
0.18483457,-0.4963699
0.17861825,0.4278436
-0.011879169,0.4580329
-0.15431333,-0.17010053
-0.057316698,-0.08774569
0.18010251,0.061259873
0.18270929,-0.5299143
0.10696628,-0.0012016136
0.036629718,0.28410476
0.013471517,-0.3620521
-0.12553588,0.26510218
0.06394593,0.68677515
-0.032051835,-0.1934623
0.060078043,0.23253326
-0.15042792,0.5448053
-0.10124878,0.070383206
0.17986195,0.031213978
-0.17258826,-0.010995908
-0.099512085,-0.085160926
0.07798535,-0.30715272
0.061071336,-0.09129725
0.09080678,-0.11843546
0.0017950153,-0.4356951
0.13459384,-0.20851006
0.06623992,0.3821675
0.08096719,0.06817495
-0.10029339,-0.34364524
0.10934801,0.43951297
0.12191328,-0.050258707
-0.1487883,-0.36893433
0.05501368,0.42983887
0.17701386,0.023319812
0.104916744,-0.3257161
-0.017869009,0.2834365
-0.025111632,-0.14528282
-0.03229761,0.10305235
-0.018720472,-0.19276857
-0.18110639,0.34855142
-0.06321185,-0.14516051
0.16837993,-0.24442989
0.15215299,0.57677996
0.09401832,-0.52982605
0.0023327032,0.06737812
-0.13771518,-0.376669
-0.1657098,-0.0041072215
-0.087940566,-0.39123955
0.15396202,0.49933282
0.04447762,-0.1305285
-0.11729297,-0.21638237
0.04541587,0.9928844
0.10602954,-0.45664883
0.05307723,0.115050815
-0.0047331764,-0.20265757
-0.10888736,0.079511374
0.10069311,-0.21360992
-0.054528162,0.24926482
0.046536006,-0.025543401
-0.15627253,-0.21112019
-0.14138016,0.45404345
-0.12557286,-0.30802295
0.050306197,0.017562205
0.042366832,-0.30850077
-0.033408318,-0.19137247
0.01948744,-0.06888373
-0.05424249,-0.17342438
-0.13981247,-0.06299248
0.053963013,-0.05548906
-0.103400424,0.51198894
0.100387245,0.28002745
-0.13186921,-0.13614447
-0.16457923,-0.6504223
0.055181775,-0.44666487
-0.17522712,-0.074952975
-0.00085641886,-0.21333303
0.041723795,-0.09724355
0.11180728,0.15456574
-0.13341719,0.9043544
-0.0751144,0.59879035
-0.025993379,-0.19729424
0.047972232,-0.52017736
0.19196026,-0.45883116
0.04315486,0.018312369
-0.060750265,-0.076535895
0.0037316505,-0.04971236
0.026051674,0.1595724
-0.1562818,0.6730024
0.14466439,0.4606487
-0.1471402,0.12918706
-0.14001638,-0.025433762
-0.16476887,0.1414718
0.044577554,-0.27708063
-0.098339826,0.037827015
0.12585346,-0.2453426
-0.102248885,-0.14154124
-0.09182425,-0.28735384
0.035139006,-0.18636513
0.098684,-0.023892002
-0.05705697,0.053350616
-0.08315063,0.006191559
-0.036988415,-0.10304605
0.0559498,0.7107944
-0.05576381,0.06325624
0.05715966,-0.075972006
0.003931543,0.15744594
0.09720624,-0.014274296
-0.14589638,-0.055142302
0.086452715,-0.09155112
0.12940969,-0.032370895
-0.11282599,-0.11006767
-0.19049129,0.36555126
-0.17093076,-0.07349856
0.06270177,0.027179433
-0.14599872,0.07116414
-0.16201036,0.013701286
0.14448272,0.07505708
0.18238792,-0.43068364
-0.049614202,-0.38610914
-0.06913601,0.33109245
-0.17376001,0.06373763
-0.16244641,-0.16041633
0.06502123,0.17718817
0.018509109,0.3453947
-0.13361119,-0.0044418317
0.004558979,-0.13189583
-0.19045714,-0.7329119
0.16535135,-0.5647147
0.008887232,0.38045606
0.18576787,0.10690772
-0.048039086,-0.10736077
-0.080774315,0.29930016
0.15953714,0.5485222
-0.12872283,0.16697381
-0.02162039,-0.10414119
-0.008910839,-0.36465102
-0.10609272,-0.24801794
0.05968643,0.1683415
-0.18101376,0.13272238
0.108646445,0.014741441
0.18082196,0.046320017
-0.13379261,0.283345
-0.084522784,0.087372005
-0.06608791,0.7735077
0.09638312,0.3656685
0.04195867,-0.1955598
0.17633283,0.43997493
0.028689893,0.16310664
-0.16133401,-0.23098977
-0.0055656214,-0.17534342
0.11700065,-0.62629503
0.13314043,-0.5576219
0.01700043,0.073304676
0.05867022,-0.12973927
0.04481952,-0.33608544
0.11310565,0.026574066
-0.12812574,0.26142037
-0.18814361,0.37217957
0.15942168,-0.2944153
-0.030778954,-0.24691118
0.08882444,0.3921008
0.119037814,-0.5609935
0.1800411,-0.45248428
-0.132421,-0.24478702
0.01712778,-0.29642
0.15498297,0.14996074
0.057724718,0.45314133
-0.17827837,-0.068944626
-0.0024157527,0.21934322
-0.17492023,0.7580054
-0.15631516,0.33542168
0.14071317,0.3189694
0.14088203,-0.3075821
0.11156058,0.514076
-0.023821726,0.3242393
-0.056557827,-0.10558924
0.0059816255,0.26089966
-0.15890107,0.08120823
0.08534013,-0.33345178
0.023730028,-0.24990289
-0.05827959,0.039728288
-0.17578542,0.15585531
-0.052288145,-0.31618634
-0.00047982857,-0.36241424
0.040792793,0.1346473
-0.030562453,-0.1745383
0.10679883,-0.2402044
-0.12063071,0.05443743
0.18315993,-0.28206775
-0.16488834,-0.05897963
-0.037955504,-0.014108498
-0.0039190166,-0.13897063
0.084494404,-0.09088699
-0.060537547,0.21146898
-0.029245086,0.011036152
-0.0004749878,0.08048754
-0.07758967,0.21162498
-0.140119,0.12976962
0.15015876,0.30806786
-0.104976624,-0.29603294
-0.02293585,-0.11687283
0.03847445,-0.59768337
-0.16459543,0.14764553
-0.04368601,0.32483882
-0.17291813,-0.08967132
0.13324437,0.2549878
0.18505456,0.35956985
-0.10787741,0.64054227
0.021711491,-0.026035763
0.00254815,-0.37578988
0.1406517,-0.9328002
0.07949092,0.30463168
-0.13144533,0.08341129
-0.09418458,-0.41194025
0.13551866,0.3219779
0.10021156,0.09280193
0.10980223,0.27066675
-0.12394498,-0.25040102
-0.06969114,-0.07077589
-0.18076852,-0.3768589
0.05929495,0.1609825
0.1747153,0.18101785
-0.14854471,-0.12018622
-0.1635847,0.092705764
0.16379298,0.3286864
-0.15157193,0.46423298
0.017364059,0.35948157
-0.1431312,-0.20562944
-0.025370875,-0.17411725
0.18442293,0.1856877
-0.033894386,-0.50298935
-0.0126435915,-0.36923438
0.10829902,-0.048487283
0.15256315,0.07975921
0.13018401,0.32995263
-0.051030565,0.23364256
0.12488534,-0.382314
-0.0789843,-0.23958978
0.16672233,0.26696596
0.07269904,-0.4227621
0.07621563,-0.13713664
0.007245675,0.24011563
-0.16289975,0.0093289325
0.031871445,0.10980091
-0.037286934,0.016144067
-0.09695898,-0.13704607
0.11665067,-0.10349313
0.043936465,0.15766476
0.09927886,-0.15458989
-0.08924164,-0.029028058
-0.13724095,0.13608253
-0.022421747,-0.09431555
0.049791314,-0.35524708
-0.13797499,-0.19449238
-0.14675732,0.05595865
-0.05189841,-0.109276034
-0.09807948,-0.13179319
-0.0435267,0.34894043
-0.06985191,0.07377736
0.10059037,-0.20461364
0.018744422,-0.1067123
0.0076478226,-0.07502803
0.05428195,0.23606656
0.07756702,0.054254208
-0.0638038,0.32626203
-0.116633646,0.34066373
0.13208887,0.10366851
0.022432484,0.16112402
0.15415172,-0.086549744
0.17070869,-0.1371437
-0.016702048,0.0061159655
-0.059364647,0.3901743
-0.07065845,-0.29385343
-0.060679052,0.009360305
0.15352517,0.26221544
0.07990379,-0.32819995
0.12792312,-0.1713673
0.07729034,-0.10058964
-0.17331469,-0.12147714
0.17798033,-0.3390397
0.0139393695,-0.6307301
0.07626544,0.36033735
-0.06756234,0.051943425
0.03789774,-0.12898019
-0.049662475,0.6407619
-0.1067695,0.5586414
-0.14532755,0.1128165
0.09575845,0.15718752
-0.012168283,0.10212781
0.13442416,0.13012646
-0.12232503,-0.14446124
0.01139856,-0.40195012
-0.1510642,0.039090067
-0.14748968,-0.18582392
0.17861204,-0.28257248
-0.16037615,-0.111722305
0.066556014,-0.01442485
-0.14173776,0.31743667
0.088087894,0.39227772
0.15292454,-0.19020821
0.045668345,0.022133961
-0.01375237,0.35163245
-0.15814364,-0.4495475
-0.012707921,-0.17401972
-0.13788426,-0.066581056
-0.115431584,-0.0433027
0.10886421,-0.09515003
-0.087859005,0.012436733
0.041872893,-0.1308539
0.017624792,-0.27619046
-0.122955434,-0.18600024
0.04875666,-0.12922414
0.01989741,-0.26916212
0.08742068,-0.19028206
0.018728914,0.064846806
-0.14275807,0.03766887
0.06828583,0.09254383
0.0682809,0.025710616
-0.09482435,-0.059722695
0.13926502,-0.034253027
0.00856802,-0.0064761587
0.14312434,-0.13646512
0.13933028,-0.03728778
-0.06121688,0.122486524
0.15168111,0.13640757
0.15874337,0.13225076
-0.17918938,0.18391952
-0.13939205,0.15413412
-0.17240548,0.09745036
-0.0044371122,0.10804125
-0.040972084,0.044921234
0.11105449,0.017081654
0.1542082,0.15736301
-0.12510699,0.14799488
-0.028396903,0.11996285
-0.09878478,0.036406968
-0.027584188,0.14563337
-0.18529205,0.101594105
0.13484414,-0.041695055
-0.028768033,0.058753006
0.17621876,0.022977808
0.086251445,-0.15705712
-0.09943227,-0.3133646
-0.08297063,-0.21996236
-0.030682737,-0.34138677
-0.0003011575,-0.43121788
-0.16085714,-0.27288345
0.10572714,-0.19046265
0.018798176,-0.2387424
0.0020958057,-0.120287284
0.13353802,0.18809746
-0.117053114,0.21548927
-0.17190132,0.0950855
0.13752848,0.19262005
0.010829534,0.2378695
0.10168229,0.14822562
-0.1860916,0.108728416
-0.16555196,0.15114044
-0.1436018,0.028402643
0.014193542,0.06415701
0.15442765,0.18876812
0.06923838,0.26460773
-0.111506715,0.031555198
0.11866758,0.0913315
0.028205683,0.23869349
0.10270196,-0.24822636
-0.12867153,-0.27786463
0.17526564,-0.018607372
-0.07531645,0.012430636
0.1307113,-0.08638673
0.0024840734,-0.03288394
0.17934626,0.11258837
-0.16440739,-0.06078841
0.013065606,0.073822156
0.09245903,-0.054262333
-0.06229143,-0.23156519
-0.14063567,0.039686993
-0.17259851,-0.045885973
-0.05443488,-0.25983047
-0.008201776,-0.31635967
-0.090196595,0.22505827
-0.12790027,-0.08633843
0.11905807,-0.22415882
0.028583352,0.36601406
0.060989592,0.11557798
0.10827538,0.0229305
0.09849718,0.026014531
0.07879216,-0.19108441
0.14778912,0.07577085
0.12534262,0.026727367
-0.053228553,-0.17216857
-0.09814961,0.06189224
-0.15681921,0.06591539
-0.0008187254,0.011518111
-0.125072,0.051787864
-0.065557405,-0.036575
-0.061281208,-0.25373212
-0.10691594,-0.029971924
-0.14973791,0.012636679
-0.15257564,-0.18604657
0.10752473,0.012063648
0.053053252,0.14222158
0.1630737,0.05094851
-0.0040889927,0.06907721
0.15897112,-0.1215658
-0.11332261,-0.2498988
-0.012929653,-0.15947254
-0.02906942,-0.08859654
-0.16441657,-0.23191276
-0.047457006,-0.12163189
-0.0049348352,-0.05517673
-0.035636406,-0.043930233
-0.07251977,-0.05837478
-0.0022631895,0.014993248
-0.1863666,-0.10091287
-0.18865609,-0.11494892
0.008707919,0.12378033
-0.08979764,-0.15568814
0.058253758,-0.1685442
-0.09644768,0.071701385
-0.16277333,-0.0839338
-0.034794305,-0.0648115
-0.13318384,0.00092470116
-0.1056078,-0.14719935
0.082369715,-0.11966674
-0.18616451,0.14721484
-0.15654688,-0.16473782
0.07490152,-0.17606868
0.14921933,0.019715508
0.048426114,-0.13802478
-0.13252898,-0.10002532
-0.069936976,0.15670492
-0.06045498,0.13779588
-0.027630555,0.05026322
0.028462999,0.35069925
-0.06792867,0.18092448
-0.11638495,0.073697604
0.1628554,0.15917352
-0.012062497,0.06293052
0.088222794,-0.0007067446
0.04010316,-0.17912757
-0.16561835,-0.1112135
-0.056612268,0.06787692
0.018943856,-0.08098759
0.111094065,0.08277246
0.15456536,0.2023826
-0.018376963,0.057836827
-0.121131346,0.1151364
-0.10997799,0.17297412
-0.0946932,-0.21646556
-0.050139688,-0.111097194
-0.13468781,0.0870055
0.093376815,-0.20184226
-0.11995968,0.009577797
-0.04231122,0.227611
0.08184303,-0.09489367
-0.04782403,-0.029761378
-0.03165962,0.08085955
-0.07780142,-0.08942263
0.16603784,-0.07073445
0.17281449,0.03287288
0.15447529,-0.13549942
-0.058601256,-0.065612726
0.12282106,0.04703542
-0.02847665,-0.011744836
0.00283451,-0.01682115
0.15631631,0.0056823473
0.1546917,-0.08459877
0.12148272,-0.1424883
0.08603745,-0.040648073
-0.052983467,-0.07982702
0.15884909,-0.051993992
-0.08771615,-0.1424653
-0.108716235,-0.15161222
-0.02708752,-0.050837655
0.19024745,0.008574904
-0.007827709,0.031377237
-0.11482647,0.07842445
-0.09769264,-0.0077353315
-0.124134734,0.1996184
-0.14206281,0.28212348
-0.05553891,0.039360896
-0.116245605,0.032261465
0.13893028,0.20825134
-0.10033081,0.16602562
-0.08734853,0.021924937
-0.1687287,-0.11866569
-0.12107156,-0.16525155
-0.024253538,0.08813508
0.16633856,-0.0357875
0.060189817,-0.19805908
0.09871701,-0.014018429
0.13422804,0.020978915
-0.005232666,-0.017005077
0.0871399,-0.06820098
0.00386726,-0.22669926
-0.041489284,-0.15419051
0.065866135,-0.0925159
0.14527334,-0.22950375
0.18228169,-0.18732421
-0.06230322,-0.015168465
0.14248015,-0.12931097
-0.15341978,-0.14864413
0.00937688,0.121597804
0.10117998,0.062361456
0.056212965,0.06369118
0.1697141,0.17738557
-0.1306989,0.11362168
-0.08853427,0.13099524
-0.0683314,0.15796672
-0.0063754222,0.18403162
0.1507817,0.1471059
0.11461162,-0.021531977
0.11507865,-0.10033052
0.10930205,-0.05777775
-0.0028148259,-0.005992431
-0.050457202,-0.08319625
-0.16432783,-0.03404529
0.010804849,0.040059146
0.05531112,0.009700345
0.071327254,0.009448512
0.02458443,-0.025264353
0.024346499,-0.3126348
0.03661132,-0.19173369
-0.042819772,-0.036465332
-0.021072906,-0.052443687
0.10918948,-0.04017534
0.1822003,0.030904181
0.09015471,0.37180498
-0.048642594,0.25794
0.02825409,-0.14389656
-0.056802157,-0.45072824
0.05773862,-0.3476489
0.0790858,-0.08981937
0.15226546,-0.05821185
0.13919869,-0.036113318
0.022651533,0.16339876
-0.047832564,0.51120853
0.08410226,0.42232245
0.11018789,0.0018052245
0.021280207,-0.2746345
-0.061495047,-0.16135862
0.013162077,-0.04879271
0.14081618,-0.078818575
-0.16394588,-0.0615473
-0.059862025,0.045196988
0.011528687,0.33477217
-0.1406485,0.21561827
-0.16140226,0.32162544
0.08567494,0.30207473
0.15258922,0.06901162
-0.0014627028,0.16731687
0.12320224,-0.41040406
-0.11935331,0.065951675
-0.15436831,0.080624774
-0.1093796,0.017658008
0.044734247,-0.10825645
0.049385246,0.098164804
0.18720251,-0.049435176
0.03254052,-0.03629023
0.07077204,-0.22504343
0.024542835,-0.98381466
0.11406978,-0.080554225
0.10641386,0.05894351
-0.041278813,-0.06762169
0.03942594,-0.036620844
0.12608291,0.043565065
0.087098,0.25058246
0.041892555,0.08130624
-0.15853919,0.11277647
-0.1796915,-0.1204608
-0.03844816,0.25928313
-0.012325158,0.0129361935
-0.062420636,0.22200274
-0.06133551,0.005947263
-0.0024620492,-0.080733545
0.12019245,-0.08635467
-0.11452027,0.04768762
-0.12382433,0.013733413
-0.08697762,-0.102465875
-0.047489353,0.048371002
0.036348384,0.1949221
0.13174962,0.1352356
-0.040028807,0.109014645
0.07521909,-0.19246703
0.04022824,-0.2548193
-0.011343501,-0.0853686
0.13010846,-0.07914189
-0.16381419,-0.19516207
0.10198703,-0.019136759
0.12879299,0.2185735
0.112121835,0.12258093
-0.080583945,0.07371841
-0.03135312,-0.1384905
-0.15768804,-0.17591509
0.056876488,-0.050135482
-0.12914978,-0.07285702
-0.027826546,-0.13591357
0.02998074,0.00671516
0.16924992,0.06463226
-0.07510266,0.039621875
0.028478026,0.05105831
-0.17126183,-0.019080296
-0.18275042,-0.058900684
0.08062473,-0.028083134
0.1656879,0.120157
0.040768266,0.15821299
0.08973746,0.09039619
0.10870474,0.09903638
-0.0028483898,0.23421523
-0.07762754,0.06694781
-0.08330948,-0.0762513
-0.17544653,-0.18369147
0.029348943,-0.14668745
0.16116837,0.097759865
0.025292872,0.035999704
0.05993512,-0.029274737
0.075451165,0.13607118
0.1331072,0.22111334
0.058659527,-0.008932852
-0.17787604,-0.16605464
0.1838549,-0.2375613
-0.0430761,-0.23946437
0.090056375,0.05595123
-0.03430977,0.0017187323
-0.051649235,-0.06536408
-0.14642332,0.19722816
0.09360376,0.24853174
0.09859113,0.04486249
0.08850255,-0.062365416
-0.13449642,-0.023031719
0.18182026,0.07069755
0.06722915,-0.068482414
-0.13517456,-0.053457864
-0.13628905,-0.13681455
0.11927627,-0.095166974
0.088303,-0.14335236
-0.14516237,-0.066805705
0.13750707,-0.1472626
0.12547809,0.07061022
0.17776394,0.1353923
-0.17444323,0.13081565
0.0327043,0.33832648
0.07745254,0.231402
-0.026526753,0.079486094
-0.07148523,0.2256042
-0.03780448,0.3025565
0.040637475,0.12718184
-0.15019406,-0.09837312
0.11569278,-0.114205614
0.13094346,0.057994947
0.06743318,-0.20953432
-0.033753388,-0.34172258
0.03197069,0.068750635
0.09485576,-0.18456021
-0.07045145,-0.1463484
-0.18491195,0.21351855
0.0503073,0.0065114945
0.17561227,0.20139238
-0.023287961,0.08724373
-0.15575303,-0.6806766
-0.090287305,0.14366215
0.06298085,0.12768155
0.14915635,0.06948314
0.0086366385,-0.07857546
0.13850363,0.1246379
-0.18905966,-0.2757795
-0.11299789,0.16624624
0.026096892,0.049836706
0.15068275,-0.94712895
-0.1883687,0.2356766
0.12443986,0.33126706
-0.040003754,0.214271
0.12287169,0.09617162
0.07294232,0.0601019
-0.17789607,-0.018483913
-0.15629701,0.09439008
-0.12255932,0.037488077
0.06002865,-0.44550684
0.15636581,0.1648148
-0.08317706,0.03482185
-0.1865189,0.10798695
-0.029321207,-0.062592894
0.12557778,-0.11995199
0.015267587,-0.02090177
0.10132467,-0.027712414
0.0646301,-0.06488631
-0.02204518,-0.013138685
-0.015503567,-0.070370875
0.06805249,0.17314255
0.06555341,0.09577648
0.1168262,0.0065082116
-0.018775968,-0.16915214
0.09150969,-0.105188884
0.03962698,-0.120984495
0.11593878,-0.0722308
0.006829074,-0.03716925
-0.0051616845,-0.14538153
0.12011867,0.21636929
0.11114589,0.11229956
0.11720297,-0.018630188
0.08973106,-0.09273511
0.039854836,-0.052591838
0.055966135,-0.059488237
-0.15966444,-0.004992951
0.054032113,-0.011348407
0.124510884,-0.050944358
0.07552465,0.16173965
0.06368716,0.08090687
-0.009847601,0.03471126
-0.18779197,-0.04407422
-0.13578165,0.15386431
0.07307604,0.055018693
-0.0820209,0.07842672
-0.0086665545,0.23970743
-0.03995647,0.1713187
-0.13781905,-0.0066745575
0.013978852,-0.008656103
0.12001947,0.028083635
-0.02735968,-0.19665745
0.06286004,-0.19072716
0.06595783,-0.2099012
0.18572123,-0.15872365
0.1283168,-0.25442782
-0.09298524,-0.21882538
-0.025658978,-0.13881893
-0.12314429,-0.30467907
0.14909144,-0.24702948
-0.00015887224,0.120159104
-0.0064894203,0.24318105
-0.11582894,0.16433123
0.05111914,0.17811552
-0.084880605,0.24093677
0.043729965,0.24215756
-0.15487854,0.14185521
-0.056511853,0.09568736
0.0034763769,0.12708387
0.051705055,0.37816983
0.07862992,0.26537192
-0.028135596,0.28424254
-0.04819025,0.5057554
-0.18642558,-0.20417498
0.020689959,-0.09735961
-0.10584011,-0.049637735
0.14259481,-0.54243195
-0.16053306,-0.5105963
-0.18156575,0.36942858
0.16439293,0.07402573
-0.18237762,0.15875052
0.18035206,0.6832506
-0.008387192,-0.29822525
0.069533,-0.18463044
0.18608186,0.15263592
0.11326461,-0.4922687
0.16881378,-0.49323645
0.10503742,0.041264083
-0.038908396,-0.015391598
0.051987536,0.02918023
0.14656757,0.35715598
0.09262738,-0.11343238
0.13623075,-0.09050366
0.13510752,0.1623648
0.018343812,-0.13732544
-0.020558113,-0.23522776
0.08264717,-0.026426442
-0.13720383,-0.034271106
0.14996663,0.19983219
-0.1808958,-0.2005362
-0.18117018,0.2545285
0.15241727,0.13499595
0.068523444,-0.15688145
-0.049268607,0.17446882
0.118863456,-0.3334908
0.03467262,-0.21140839
-0.062951855,-0.21980135
0.16256514,0.092730574
-0.14585182,-0.26201436
-0.11426311,0.39181244
0.14833754,0.1978529
-0.12832306,-0.09898291
-0.11393298,0.38072944
0.16721104,-0.2664509
0.15777458,-0.06557915
0.18741374,-0.26422635
-0.07264974,-0.23206683
0.17546661,0.04850478
0.026783312,0.19744621
0.09872192,-0.07683971
0.11794425,0.20636958
-0.102765605,0.3835556
-0.13606997,-0.20567106
-0.18415473,-0.1381899
0.1903251,-0.20425978
0.14026143,-0.15680371
-0.059710357,-0.13200521
0.16816953,-0.20838684
0.058008943,-0.17768426
-0.090395205,0.024329167
-0.018472286,-0.05797024
0.11178106,-0.019825222
-0.15492706,-0.026007086
0.05028904,-0.035371173
0.1130171,-0.049121406
-0.18628502,0.018495474
-0.01887104,0.07498949
-0.15546672,-0.021813419
-0.15697604,0.10433944
0.18796518,0.15838593
-0.06533049,0.07967099
-0.07618161,0.0052403533
0.14829458,0.10507543
0.048855197,0.020082394
-0.09611855,0.09038661
0.11918173,0.28151366
-0.16385545,0.11418019
-0.025106836,0.033020742
0.09909335,0.21069416
0.13234112,0.079325646
0.060097888,-0.052884
-0.14426859,-0.1118192
0.12078995,-0.02237692
0.14309269,-0.18516812
-0.010846305,-0.2632855
0.0024047177,-0.04567251
-0.17590661,-0.12461798
-0.009830463,-0.15776363
-0.07481265,-0.02590735
-0.14455274,-0.06854236
-0.10508018,-0.1052838
0.029276563,-0.056703042
0.025200693,-0.14857878
-0.0014481577,-0.1763445
-0.021464821,0.031325243
0.11921132,-0.092167564
0.13965933,-0.049275868
-0.1350394,0.032291133
0.105484605,0.12215613
-0.08527605,0.20693736
0.13736719,0.18404776
0.07803673,0.15761782
-0.19067082,0.23936693
0.13856277,0.2879022
-0.033665266,0.084973946
0.1504582,0.17520012
0.0034892473,0.1576562
-0.17601863,0.025902491
0.11249508,0.38224447
-0.17094368,0.29388422
-0.15189253,-0.47560072
0.12768845,-0.36006102
-0.102183565,0.23282364
0.11274374,-0.22282827
-0.010789088,0.00083313265
0.057516452,0.15329167
-0.120992735,0.17673604
-0.097237654,0.38770288
-0.028266845,0.026035784
0.18924785,-0.39036494
0.17782173,-0.50040823
0.020923669,0.0017150344
-0.11684164,0.061660156
0.16072692,0.14792015
0.042458322,0.051035404
0.170677,0.12967066
-0.024140343,0.07538129
0.07433796,-0.38850775
0.045843437,0.050931413
-0.15159132,-0.19381316
-0.0043548658,-0.1750136
-0.04991153,0.34482887
0.02564948,0.21557082
-0.041672062,-0.08347761
-0.047338556,-0.81056273
-0.17219818,-0.74319047
-0.08061335,-0.77884966
0.14039719,-0.16934007
0.07831722,0.3423196
0.16197638,-0.070196725
-0.14832193,0.5249385
0.012564488,0.95988625
-0.15125765,0.7620926
-0.17988725,0.07916383
-0.04681553,0.24559236
0.06821515,-0.15317097
-0.0013828652,-0.07085976
-0.18680379,0.446523
0.029199202,-0.380741
-0.13259465,-0.15308823
-0.074066214,0.124269314
-0.09807675,-0.11069931
-0.1694315,0.5202854
0.14290777,0.7573576
0.052103117,0.62370765
-0.005764137,-0.10733238
0.15314095,0.1876233
-0.15801506,-0.1218277
-0.05952969,-0.6640708
0.06304465,-0.64890945
-0.11706365,-0.5535569
